// weights.c
#include "weights.h"

const float lstm_ix_weights[6][10] = {
    0.23292176, 0.03862316, 0.8814584, -0.41765195, 0.15960261, -0.09102441, -0.23045628, -1.036091, 0.16580188, 0.15775387,
    0.3244639, 0.22689131, -0.106261075, -0.32758126, 0.6440311, 0.6350177, -0.022644468, -1.1734371, -1.2412412, -0.020031875,
    0.17540377, -0.1471808, 0.39034823, -0.8353862, -0.30262855, -0.55423856, -0.43029863, 0.34734774, 0.6034664, 0.2688665,
    -0.004330843, -0.14815566, -0.24445648, 0.4334927, 0.5528843, 0.23541686, -1.5500256, -0.41095853, 0.0776328, 0.19207959,
    0.68981093, 0.11882781, 0.090129, 0.0822016, -1.5463212, -0.02370653, 2.100049, 0.09364084, -0.32700208, -0.39080068,
    -0.10189871, 0.26616356, -1.2828667, 0.86282516, -0.4758235, -0.5594286, -0.7518114, 0.18195994, 0.34576342, -0.321727
};
const float lstm_ih_weights[10][10] = {
    0.047647584, -0.022544507, 0.2694314, -0.153307, 0.11904357, 0.62530637, -0.24060248, -0.34020537, -0.8431932, 0.04252513
    -0.56388074, -0.013916725, -0.145989, -0.40966943, -0.2873613, -0.6214458, -0.3944571, -0.31366885, -0.6069786, -0.7639851,
    -0.1055656, -0.37497652, 0.0840429, 0.11433715, 0.0683011, -0.89545846, -0.58990103, -0.1171817, -0.22357412, -0.07692506,
    -0.5873971, 0.18182772, 0.07531769, -0.20825124, 0.0400372, -1.0324346, -0.6798922, -0.1771698, -0.8303656, -0.46576858,
    0.7398779, -0.42799002, 0.4611573, -0.1713842, 0.0111910105, 0.8149405, 1.0085664, 0.4232109, -1.1929727, -1.0023267,
    0.5708665, 0.36512142, 0.89623684, -0.121394254, 0.38275757, 0.4031466, -0.35095024, 0.6078891, 0.35383758, 0.8238285,
    0.67040735, 0.5249839, -0.62724614, 0.404124, 0.9256929, -0.0859065, -0.5794616, 0.4911094, 0.4446232, 0.62224424,
    -0.21273032, 0.53474975, 0.56816375, 0.8532142, -0.66269946, -0.69717485, 0.43290558, -0.68254644, 1.8293399, 0.46077815,
    -0.2660881, -0.25097632, 0.041812554, -0.2713234, 0.03632903, 1.0220262, -0.864775, 0.29271778, -0.69171846, -0.2547329,
    0.51409113, 0.12437607, 0.27752355, -0.12505962, 0.030848596, 0.8586955, 0.8074659, 0.41627857, -0.10017331, 0.5112659
};
const float lstm_fx_weights[6][10] = {
    0.019619474, -0.25081444, -0.46649742, 0.12818325, 0.24184163, 0.56062347, 0.1304751, 0.6348094, 0.23055013, 0.0072918744,
    -0.30918258, 0.0048624617, 0.39679247, 0.437135, 0.5362603, 0.5159457, 0.10285129, -0.27026665, 0.4590567, 0.01663136,
    0.16892304, 0.23879948, -0.41691387, -0.61707234, -0.5213506, 0.09841081, 0.5373194, 0.13496833, -0.1700627, 0.6376982,
    -0.06864646, 0.08914292, 0.3033244, -0.08129413, -0.36390993, 0.28505203, 0.33116868, 0.44927686, 0.37499174, 0.40833434,
    -0.14701648, 0.013970015, 0.12124713, -0.1501656, 0.026674494, 1.047992, 0.26692435, 0.13185358, 0.348992, 0.18425879,
    0.13930517, 0.03666946, 0.8432234, 0.065789334, -0.26402536, -0.24152829, 0.25332153, 0.76139134, 0.06850146, -0.19823955
};
const float lstm_fh_weights[10][10] = {
    -0.09597658, -0.1858664, 0.5593523, 0.074568674, -0.47279692, 0.16222307, 0.53271675, -0.2829386, 0.16511644, 0.41397157,
    0.023037344, -0.35909927, -0.27361622, -0.17890397, -0.18286535, 0.20715693, -0.47301188, -0.22477485, 0.030363517, -0.0845448,
    0.33455506, -0.78888285, -0.44148803, -0.25326028, -0.25134134, -0.2850887, -0.22035445, 0.73347574, -0.15948425, -0.32401714,
    -0.0016358935, 0.15668316, 0.6742617, -0.43031663, 0.14176442, -0.29868767, -1.0378004, -0.26682016, -0.7661561, 0.04789201,
    0.066344365, -0.56331116, 0.69760746, -0.37815177, 0.6766043, -0.27484897, 0.9557272, -0.24114837, -0.68017185, 0.13319579,
    -0.07329268, -0.05065637, 0.0032324798, 0.19601467, -0.42976812, 0.18135034, 0.64984643, 0.44003803, 0.48972484, 0.21711232,
    -0.24230957, -0.10999992, -1.0862486, 0.009381953, 0.9867068, -1.1415533, 0.5491557, 0.060200993, 0.2617022, 0.116724886,
    0.123456664, 0.29159874, -1.0736554, 1.1527594, -0.23307787, 0.5714672, -0.7111028, 0.09059298, 0.24139573, -0.31342354,
    -0.08163115, -0.6492646, 0.30481339, -0.5284791, -0.5550986, 0.17313334, 0.6315436, 0.42780066, -0.03802606, 0.08461002,
    0.106688134, -0.07495096, -0.040276818, -0.10248429, 0.45765373, -0.14943479, 0.6769488, -0.10341528, 0.3631692, 0.26533735
};
const float lstm_cx_weights[6][10] = {
    -0.13878591, -0.12586328, 0.18728781, 0.24354689, 0.07922654, 0.13177113, 0.36812147, -0.07298904, 0.066055275, 0.11512912,
    0.04244609, -0.0362088, -0.6597279, 0.4734868, -0.29274657, -0.1508252, -0.15526536, -0.019857539, -0.5894543, -0.00063430617,
    0.37089422, -0.22908951, 0.17913404, 0.08875484, -0.08591116, 0.017870503, -0.3668236, -0.17543887, 0.26470077, 0.3608969,
    0.16665116, 0.10443082, -0.4879029, -0.053029403, 0.3697826, -0.33951038, 0.07746961, -0.13048749, -0.07781599, -0.0068734824,
    0.14139265, -0.4188823, 0.0653513, -0.24607666, -0.4300191, 0.5959243, 0.6702482, -0.37823316, 0.22397636, -0.07391032,
    0.07807348, -0.13340768, -0.27437693, -0.38273, -0.22509272, 0.22109021, 0.05512043, 0.25439915, 0.10626944, 0.1939888
};
const float lstm_ch_weights[10][10] = {
    -0.035855815, -0.027356746, 0.01563205, -0.34770367, 0.030953087, 0.21559778, -0.30967203, 0.18334723, -0.20811062, 0.41805723,
    0.042558037, 0.14764096, -0.06846224, 0.2605828, 0.17861027, 0.25883546, 0.17209053, -0.00778178, 0.03550239, 0.04436343,
    0.20903437, 0.47773114, 0.29609576, 0.13403644, 0.08289109, 0.057719372, 0.22898178, -0.37290242, -0.06883071, -0.091379285,
    0.24556996, 0.18196625, -0.28540662, 0.8577806, 0.17638831, 0.020846523, -0.059543215, 0.06806872, 0.039460965, 0.58396024,
    -0.5137833, 0.10588082, -0.036453273, -0.3776379, 0.14489262, -0.3773752, 0.17982052, -0.17618246, -0.021461135, -0.25329053,
    0.31279063, -0.46030787, 0.5293929, -0.21121235, 0.16217011, 0.35087064, -0.13124156, -0.28685445, -0.08238727, -0.117304794,
    -1.0474938, -0.5153265, 0.18724975, 0.625326, 0.1292387, 0.037580833, 0.38438216, -0.16060142, -0.06773518, -0.51099485,
    -0.0916141, 0.11667404, -0.08862446, -0.24587211, 0.021378433, -0.43814683, -0.024457948, 0.15029743, 0.03175812, -0.30442917,
    0.090567835, 0.18069893, 0.46574676, -0.1288186, 0.39705822, -0.49922422, -0.4059292, -0.49877346, 0.2275301, 0.59251994,
    -0.08968031, 0.18617633, 0.017648347, -0.3368574, 0.52033174, -0.115653865, -0.029500578, 0.069918096, 0.024531363, 0.31355953
};
const float lstm_ox_weights[6][10] = {
    -0.056364767, -0.38667986, 0.76887536, 0.011965039, 0.78609353, 0.6376702, 0.3701856, 0.018865429, 0.31494766, 0.44638407,
    0.49407828, 0.31767476, 0.3280943, 0.22962737, 0.7865486, 0.7496446, 0.5189688, -0.4994103, -0.04283716, 0.17117772,
    0.3710297, 0.074216574, 0.5756759, -0.8418707, 0.0123620005, 0.3815996, 0.2887212, 0.5745833, 0.14816213, 0.64584935,
    0.24056096, 0.10554937, 0.4708679, -0.039320998, 0.69314736, 0.78966993, 0.5540268, 0.6295434, 0.4229154, 0.31402552,
    0.9122503, -0.49042407, 0.09117454, -0.013762541, 0.12516199, 0.8290447, 0.8877528, 0.15566628, 0.7576942, 0.0053939195,
    -0.0938062, -0.10954159, 0.35340127, 0.6561949, 0.6242405, 0.42537653, 0.28089455, 0.9761091, 0.3926926, 0.055560756
};
const float lstm_oh_weights[10][10] = {
    -0.3464155, 0.18558249, 0.5447016, -0.2681494, 0.037875533, 0.52576196, 0.41931903, -0.038309447, 0.1669023, 0.1766102,
    -0.41337627, -0.37673545, -0.37799087, -0.1241366, -0.3472669, -0.84311956, -0.64846677, -0.5171059, -0.7186753, -0.61730075,
    0.31342012, -0.3992827, -0.48646927, -0.22226821, -0.50430477, -0.8587113, -0.491699, 0.48878485, -0.40124562, -0.6094162,
    -0.22952296, 0.13814397, -0.24072894, -0.67461705, -0.67801124, -0.8538916, -2.206316, -0.81424844, -1.152247, -0.65651613,
    0.37601805, -0.38270158, 1.1645776, -0.3143918, 0.2738633, 0.022305302, 1.09749, 0.4919765, -0.49639753, 0.70575815,
    0.72272307, 0.72895736, 0.9167754, 0.15350819, 0.3204623, 0.6917922, 0.20272574, 0.6718357, 0.4721885, 0.753286,
    0.67702276, 0.38186705, -0.662459, 0.060758024, 1.2752284, -0.8370842, 0.03765246, 0.34372896, 0.6137659, 0.120473556,
    -0.4745495, 0.36704674, -1.0634059, 1.4393394, -0.4113651, 0.42127565, -0.92869955, -0.42633063, 0.5057475, -0.11702271,
    -0.11025843, -1.0929002, 0.30126506, -0.6160619, -0.26429915, 0.21551907, 0.62556344, 0.4636691, 0.15154926, 0.35255128,
    0.40042675, -0.18620872, 0.69828737, -0.03901062, 0.69200164, 0.62362105, 1.2237616, 0.4793354, 0.8073157, 0.7376913
};

const float lstm_i_biases[10] = { 0.40042675, -0.18620872, 0.69828737, -0.03901062, 0.69200164, 0.62362105, 1.2237616, 0.4793354, 0.8073157, 0.7376913 };
const float lstm_f_biases[10] = { 0.40042675, -0.18620872, 0.69828737, -0.03901062, 0.69200164, 0.62362105, 1.2237616, 0.4793354, 0.8073157, 0.7376913 };
const float lstm_c_biases[10] = { 0.40042675, -0.18620872, 0.69828737, -0.03901062, 0.69200164, 0.62362105, 1.2237616, 0.4793354, 0.8073157, 0.7376913 };
const float lstm_o_biases[10] = { 0.40042675, -0.18620872, 0.69828737, -0.03901062, 0.69200164, 0.62362105, 1.2237616, 0.4793354, 0.8073157, 0.7376913 };

const float dense_layer_weights[10][5] = {
    0.78745663, -1.2066871, -0.13462609, 1.28572, -2.2718318,
    -0.8528907, -0.55311275, 1.0869281, 0.57323563, 0.09875379,
    -0.84569925, -0.3760478, -1.3310863, 2.074987, -0.24397637,
    0.7140681, -0.9019288, -0.42535177, -0.38377324, 0.16513771,
    -0.09812736, -1.0896497, -0.043597326, 0.15042666, 1.477626,
    1.305665, 0.57427835, -3.2946262, 0.9403015, -1.2814864,
    -0.7031419, 1.8115958, -1.8744297, 0.41122258, 2.7887974,
    0.2572435, 1.3609718, 1.6819144, -1.165765, 0.0907927,
    -0.13374597, -1.1254466, 0.83893913, 0.7342887, 0.9936039,
    0.50718147, -1.8217578, 0.22527187, 0.393347, 0.9544144
};
const float dense_layer_biases[5] = { 0.50718147, -1.8217578, 0.22527187, 0.393347, 0.9544144 };